<?xml version="1.0"?>
<opencv_storage>
<opencv_ml_ann_mlp>
  <format>3</format>
  <layer_sizes>
    64 42 1</layer_sizes>
  <activation_function>SIGMOID_SYM</activation_function>
  <f_param1>1.</f_param1>
  <f_param2>1.</f_param2>
  <min_val>-9.4999999999999996e-01</min_val>
  <max_val>9.4999999999999996e-01</max_val>
  <min_val1>-9.7999999999999998e-01</min_val1>
  <max_val1>9.7999999999999998e-01</max_val1>
  <training_params>
    <train_method>RPROP</train_method>
    <dw0>1.</dw0>
    <dw_plus>1.2000000000000000e+00</dw_plus>
    <dw_minus>5.0000000000000000e-01</dw_minus>
    <dw_min>0.</dw_min>
    <dw_max>50.</dw_max>
    <term_criteria>
      <epsilon>1.0000000000000000e-04</epsilon>
      <iterations>1000</iterations></term_criteria></training_params>
  <input_scale>
    1. 0. 1. 0. 1. 0. 1. 0. 1. 0. 1. 0. 1. 0. 1. 0. 1. 0. 1. 0. 1. 0. 1.
    0. 1. 0. 1. 0. 1. 0. 1. 0. 1. 0. 1. 0. 1. 0. 1. 0. 1. 0. 1. 0. 1. 0.
    1. 0. 1. 0. 1. 0. 1. 0. 1. 0. 1. 0. 1. 0. 1. 0. 1. 0. 1. 0. 1. 0. 1.
    0. 1. 0. 1. 0. 1. 0. 1. 0. 1. 0. 1. 0. 1. 0. 1. 0. 1. 0. 1. 0. 1. 0.
    1. 0. 1. 0. 1. 0. 1. 0. 1. 0. 1. 0. 1. 0. 1. 0. 1. 0. 1. 0. 1. 0. 1.
    0. 1. 0. 1. 0. 1. 0. 1. 0. 1. 0. 1. 0.</input_scale>
  <output_scale>
    1. 0.</output_scale>
  <inv_output_scale>
    1. 0.</inv_output_scale>
  <weights>
    <_>
      5.4521453898093974e+01 -3.3746038060430635e+01
      -7.4530826242884984e+01 -4.5343395332771394e+01
      5.8384183868836082e+01 3.2872215831263858e+01
      -5.7347958369845884e+01 2.3177685711205783e+01
      -4.8050661077191414e+01 -4.3101186660227931e+01
      -8.1708711084866366e+00 3.1775679097438005e+01
      8.9362129724899361e+01 6.9360885386697632e+01
      -4.9512348475172871e+01 -6.8939497402363273e+01
      6.0795157650194213e+01 -3.5370729368017827e+01
      8.7549910390149776e+01 -1.4651045786378065e+00
      -5.5558822398030308e+01 4.5017904881740805e+01
      7.5752041851437312e+01 3.5053392647705075e+00
      1.4444512586022297e+01 -3.7283434862631815e+01
      -4.3160511493757234e+01 -1.0690077617785867e+02
      6.2412017629927441e+01 1.9075967879512567e+02
      5.7305153474360040e+01 -5.7487195281744775e+01
      5.4604219535964681e+01 -7.7450443724407720e+01
      1.4445349656962722e+02 1.4299123819330799e+02
      -3.1265433850870728e+01 -3.0671090276803735e+01
      1.3152437252611097e+01 2.4363337990951486e+01
      1.0172036035716454e+02 -2.9297521088701625e+01
      1.7947250337765979e+01 -3.2013281071023194e+01
      -3.7208462683816883e+01 -1.2565570329370718e+02
      -8.8073244652644522e+00 4.2713141417390176e+01
      -4.6530467283124757e+01 -3.6240007309533254e+01
      9.1685652061300047e+00 -1.0893528172252144e+02
      -1.0085579041187586e+02 9.6575135506182107e+01
      -2.8467680340613068e+01 -1.0944499830340808e+01
      -6.6166315283834336e+01 -2.2063270552648163e+01
      -9.9400763029433762e+01 -1.1002029525360109e+02
      1.3195717984117681e+02 -6.5061697731749462e+01
      -3.3803148450870893e+01 1.2497527945052353e+02
      2.0832733853780002e+01 3.1593480133862062e+01
      -1.1397311724731286e+02 -5.5879474943250848e+01
      1.3637150541541320e+02 -4.7100170387360983e+01
      -1.8439626024030375e+02 -6.6794534061881876e+01
      4.6351811807926715e+01 -1.9512287066702690e+01
      8.1499992482781295e+01 -1.0338085083645574e+02
      5.0635726355403975e+01 5.7690473428147840e+01
      1.8243141450390844e+01 -1.1748396890527988e+02
      -1.0816085526498902e+02 1.2637286763624098e+02
      -7.6508855496344140e+01 3.4081902124861834e+01
      -8.1176857359837754e+01 -6.6093260972260623e+01
      1.6336011734119347e+02 4.6637828878959759e+01
      1.2136232890031330e+01 -8.1702885028597834e+01
      -9.8421846681617865e+01 6.3782210179766579e+01
      1.8224903627359013e+00 -2.6618277835100622e+02
      1.4123948781667787e+02 1.6363761871281517e+02
      3.7939777455392125e+01 3.3611948134181041e+01
      -1.7267920168233542e+02 3.9135429801399724e+01
      -9.2058742041105162e+01 9.3159868484636590e+00
      -2.7554359543584887e+01 8.1518763673438229e+01
      -3.6342777876620062e+02 -3.8772146448523685e+01
      -2.7948932184694449e+01 1.4919302189231841e+01
      2.2645886655195781e+01 -2.7313750769046731e+01
      1.1544017106737384e+02 -1.1852212713940624e+02
      8.5267277041482117e+01 9.1435259147138169e+01
      -9.9846671191018601e+01 -3.2088752682940765e+02
      2.2407093838480662e+02 1.0017367355092469e+02
      4.2631530527033824e+01 -1.2350770627561779e+02
      -1.4361955625705474e+02 7.8174647425642391e+01
      1.8774761617426003e+02 1.4640174213219757e+02
      -1.0855607722106252e+02 -3.5234271932299094e+01
      5.0473097255483950e+01 -1.6786874655131885e+02
      -3.3528153579577115e+01 -1.6551123855477530e+02
      5.9629901029036766e+01 -8.4176659774489835e+01
      1.0518958358894082e+02 2.9819453021227698e+01
      -9.4375569536977892e+01 1.8967285228368290e+01
      -2.7337941728890524e+01 1.3357176953962536e+02
      -4.9645259309741228e+01 -8.4221998461555430e+00
      -4.7981490629746069e+01 9.0398421813238230e+01
      -6.8215461625337554e+01 -1.2174440762946766e+02
      6.9862975887200591e+01 -8.2467558011545606e+01
      -8.9851533443594125e+00 6.9221922552401224e+01
      -2.1462244007499209e+00 1.4336799970143645e+02
      -1.5574700290829327e+01 -4.9092277202641178e+01
      -1.6563900423830582e+01 8.0471458492471211e+00
      2.0479656224875590e+01 2.6166061725026267e+01
      -1.1793217860945566e+02 3.2379117276954027e+01
      -1.1081477547223573e+01 4.3300886256000375e+01
      -1.1274558929392377e+02 -1.0450782483924395e+02
      -3.1880102955307869e+01 -4.9561027953630948e+01
      -6.9900253193458866e+01 7.4469434861545295e+01
      -8.2967854448184113e+01 9.7563582118894473e+01
      3.9124203483274684e+01 -1.0923758662248943e+02
      -2.5604894512181769e+01 -1.5463157892791790e+02
      -9.6008776909990488e+01 -1.7059604745447703e+02
      2.5422691410113607e+01 -1.2518801327043921e+01
      1.5459899146523826e+01 8.5169762227659035e+01
      4.3255359282046646e+00 1.8698461758592890e+02
      2.8842495549579716e+00 5.6145379587773505e+01
      -3.3226110198431620e+01 -6.6059396500291314e+01
      -3.8477046032765628e+01 3.3027064208467579e+01
      -8.7067876452150614e+01 -5.1055090523643507e+01
      1.0062202514515081e+02 5.2399999980249639e+01
      6.7142224496115773e+01 -7.6531185461295493e+01
      -5.3577557193107680e+01 1.6947050480615213e+00
      3.9091797810507236e+00 3.6153254060571044e+01
      -6.4152084818653833e+01 -8.5853256634995446e+01
      -8.4933367062077423e+00 8.1703238901786733e+01
      -6.8577681757328307e+01 -7.5877418948919654e+01
      -1.2955725384162307e+01 1.0256760636374099e+02
      1.4486426505772917e+01 8.6458875519996056e+01
      -7.8871379961908374e+01 2.0665024291102014e+02
      7.4315075140508682e+01 3.1478132194100172e-01
      7.2809174466529257e+01 -2.0888847372253512e+00
      -4.7486723401826680e+01 1.9447034108898702e+01
      -1.0279256054273667e+00 4.9538367005322442e+01
      2.5386169228912365e+01 3.8567087980724297e+00
      -1.7509526826526077e+01 1.1770173990175324e+02
      -5.0654889288312596e+01 -2.3323296070019943e+01
      -6.7267020003136167e+01 2.5740236239590004e+00
      3.9469571215721584e+00 2.1515430286376002e+01
      6.2343212198743096e+01 -2.8477857671091790e+01
      1.4338963094135073e+02 -1.1545305053289815e+02
      -4.6125659167550239e+01 -1.7440631839343141e+01
      4.9064983987186743e+01 -4.8152555135073321e+01
      -6.7334905047677864e+01 -3.3908760475609014e+01
      -5.7935201209869781e+01 2.9262811762966358e+01
      4.5893551791477897e+01 3.4078081798002160e+01
      -9.5782991716109738e+00 4.1749518374256567e+01
      -4.5881642259239310e+00 -5.0917417634453891e+01
      2.8039132528368498e+00 -3.0807877725091341e+01
      3.2194549696383334e+01 5.8396248900728899e+01
      4.0546220939465577e+01 -9.4795647218190382e+01
      -5.4044604232099767e+00 1.5258407826026165e+01
      1.0881502145380213e+02 4.0053679278410407e+01
      -7.1239984977205197e+01 5.3637530063335745e+01
      3.2643934049657169e+01 -2.4129198069983126e+01
      -1.2113084478799298e+02 -4.6696099037562384e+01
      7.6365887519245803e+01 3.5772533596229898e+01
      4.3805967894603466e+00 -7.9336226974195853e+01
      -1.3932980646061790e+02 -2.7278081697535182e+01
      1.8508828185277932e+02 -4.9590426951005888e+01
      3.4414252138603821e+01 1.7021650984659732e+02
      3.9401262489638604e+01 -4.0618986407859680e+01
      -1.1122963267541818e+01 -4.8415602771502236e+01
      2.8226010735385326e+01 4.3898954099465307e+01
      -1.2297134098545692e+01 -5.4620606480370753e+01
      -1.2093402803495335e+01 2.4975396469562924e-01
      -2.0583136574299200e+01 1.5301868951471661e+02
      -9.7051437945044299e+00 1.1090150966471229e+02
      -2.0155533509886357e+01 -1.5164364132647469e+02
      5.5019870365651791e+01 6.4198870450617136e+00
      -4.8668793131726460e+01 -1.1111590630418883e+02
      -7.8741495535597082e+01 6.4607977830898022e+01
      8.4640123366167913e+01 8.7624372530341816e+01
      -9.1675729416815571e+01 9.9902902463269513e+01
      -1.5862893481622527e+02 -3.0907478030035356e+00
      5.0834385779377158e+01 -1.6043948467409532e+01
      -2.3043398472883094e+01 -2.1748767290095035e+01
      -3.1672913655588002e+00 -1.3458097027088795e+02
      -1.5357559243360354e+01 -4.6592821208344567e+01
      2.7489814289968244e+01 -5.4277543593338244e+01
      -2.3384640400248063e+01 1.6337411199710786e+02
      8.8334115586942687e+01 -1.5918289612468074e+01
      -1.9611681948803159e+00 -5.2021371372066149e+01
      7.6103930622718210e+01 -1.6121259030179862e+00
      -1.4446428437569730e+02 7.1307312225229282e+01
      -8.9480005290577708e+01 3.8224370197255006e+01
      1.3530479326076272e+02 -4.4669144294588811e+01
      1.0933615831000274e+01 7.7502443786475951e+01
      5.9085691110789604e+01 2.3979403436437128e+01
      2.6802096503314708e+01 -1.2256602344024087e+02
      3.3835247457276346e+01 1.1576296651604335e+02
      1.0585056826118590e+01 1.0121251412456607e+02
      1.1761139276676545e+02 2.0757170426848722e+02
      6.3113027732909295e+01 -9.7882932394443003e+01
      1.0854795674376113e+01 4.7318251959617591e+01
      -7.8297972969732811e+01 -7.5614224233367864e+01
      -8.5283091942276286e+01 7.9415734233872229e+01
      -4.4832776868324558e+01 4.6103980190813331e+01
      -6.3122947629949469e+00 -5.2124673220100625e+01
      3.9469090578819497e+01 -9.8239316490696012e+01
      -2.4617344103423939e+01 -1.5205640732732693e+01
      -5.3544633363755743e+01 -5.6569707315109525e+01
      -1.9376549993348331e+01 -2.7063911417489461e+01
      1.0378942885066334e+02 5.2835121044126669e+00
      6.6505750832130545e+01 1.5941040364646582e+01
      -2.9505602371618775e+01 -1.1745312074153709e+02
      8.2132683214236266e+00 -1.2507707617780540e+02
      -5.1216353129185379e+01 -7.6778560395925155e+01
      9.1088274343500601e+01 -9.9370492495757095e+00
      2.8818238035066045e+01 -6.0770609241108929e+01
      7.5285660500215783e+01 -1.5214908201294253e+02
      -2.0194388836792939e+01 -3.4216624304663377e+01
      -4.5730726316745766e+01 -4.5551242131732437e+01
      2.4071639726799951e+01 -1.2256572409886735e+00
      -3.6565365764044628e+01 -1.7698987149477986e+01
      4.4505830949093507e+01 -5.3141530953334687e+01
      5.3206482443600329e+01 -6.2074278276136560e+01
      -6.9788981496284592e+01 -6.8105848632228871e-01
      -4.2896081794600065e+01 -4.2229629434738591e+01
      5.1329481761826557e+01 -3.6624053928699425e+01
      2.4156518585934556e+01 2.3189163898187807e+01
      1.1644087602698944e+02 -2.2273713657404965e+01
      -1.7358980931856394e+01 -1.9151633005575032e+01
      -5.9484750739668605e+01 9.5525945171104567e+00
      9.1602183746037653e+01 2.2700352897016490e+01
      2.8399777689615554e+01 1.6386910449991685e+01
      3.5390313735621883e+00 -1.0358772053115952e+02
      -9.5313336753197234e+01 -3.8750762207739299e+01
      1.4387768712827821e+01 -6.6505572272549784e+01
      6.6306410648663757e+01 5.8719652468557806e+00
      -4.2183900914402717e+00 -6.3444734213055114e+01
      -6.1929910159515551e+01 -1.7125590056177310e+02
      5.4436244845322648e+01 -2.2962826423475246e+01
      -9.0392262685312410e+00 -4.2769994574272324e+01
      -2.5406522692135848e+01 4.6829383845514158e+01
      -3.3435145858368280e+01 -5.8580420590274088e+01
      -3.8043298527267794e+01 -9.0326674644687870e+01
      3.2170159487868311e+01 2.7511712516079466e+01
      5.4826487061449392e+01 -1.7586053562518860e+01
      -5.8135218202612883e+01 -1.4061066680375609e+01
      1.2876718663312082e+02 -5.6856390796595647e+01
      -5.9960911996369134e+01 -2.0885522020422350e+01
      -4.2401693272283381e+01 1.1825308760772447e+01
      -6.1119028748993060e+01 4.2341681490228460e+01
      -5.4045207573644518e+01 -4.4117102930471177e+01
      6.9732723985835491e+01 7.6185683352469042e+01
      -3.5804487866835508e+01 -9.8259948178989891e+00
      -2.8453084501647949e+00 -8.6349670073275135e+01
      8.7430711614508652e+01 7.8162608624922441e+01
      6.4654053903006314e+01 -1.0632117931318636e+02
      -6.7147429915108901e+01 5.5654452696252179e+01
      6.9453681733241098e+01 -2.3590395640561095e+01
      -3.1819527089319653e+01 8.5841655189135970e+00
      -4.1799649960241211e+01 -3.5315619966731006e+01
      7.9610488826161287e+01 -1.4774621609881865e+02
      3.4684721832157578e+01 -1.4410297629814897e+02
      -1.2728928870202077e+02 3.2015088049601545e+01
      -6.5957769531329959e+01 9.1235608143544784e+00
      -3.7291882472002413e+01 -1.2224798326056350e+02
      -1.6630810232210106e+01 1.0293023516333017e+02
      4.3207171012634682e+01 2.7936456438211295e+01
      6.6247719548834624e+01 4.6660733830245263e+01
      1.2921063229537154e+02 3.0058354993138316e+01
      2.5529464437362325e+01 1.0779323093697823e+02
      4.8250894194091370e-01 -7.5004811801552620e+00
      7.1484716832271795e+00 6.7417226198362137e+00
      -1.2560035942265026e+02 3.8204130933222118e+01
      2.2387082277530630e+00 6.6590161598222309e+01
      4.0823475699955480e+01 1.3143868250161594e+01
      -2.1638391175416210e+01 -4.5194202606372194e+01
      2.8816497243872519e+01 6.9654820288574982e+01
      9.2545711977927869e+00 7.3006355824936833e+01
      -2.3455710490377658e+01 5.2908974047279706e+01
      -4.2670555017242378e+01 -3.9670204326400516e+01
      -1.2864967764087262e+02 -4.4034937315744592e+01
      2.4679989268738737e+01 -3.0038814827069615e+01
      -6.0226994722443422e+01 -2.6613918613574420e+01
      8.9645588872964026e+01 1.9674640461348835e+02
      -2.6774825000638249e+00 9.3660203368934887e+01
      4.4403388920806925e+01 -1.5500610370775630e+02
      6.3828053377406192e+01 -1.0612818355176434e+02
      4.6973756814326919e+01 -2.3428226471323246e+01
      -5.2584160795674059e+01 -8.0613528547259222e+01
      2.2715191063536242e+01 8.6900628943567170e+01
      -4.3984274416042119e+01 -5.6649185909793587e+01
      5.2473814489094819e+00 4.4796294649418385e+01
      1.4496733618546775e+01 1.0240327879206532e+02
      5.0543511924508771e+00 -3.3054685303723694e+01
      -1.6070953750882023e+01 -2.4440239495778044e+01
      2.0457083940486598e+01 5.0536930568194478e+01
      2.5262640856276018e+01 -5.4004791338804345e+01
      1.6613981979871959e+01 -3.7702189753261536e+01
      -2.0858028410125257e+01 1.6009137461995144e+02
      1.0065118098043955e+02 2.3142530506922665e+01
      -1.0366655601574298e+02 5.1688878504823519e+00
      4.3262910966146826e+01 -9.7229647134369742e+01
      7.4665838781721172e+00 -1.0525874173956485e+02
      3.1245868212610716e+01 -6.5506060665062435e+01
      8.3582300536301190e+01 -1.0877679935921431e+02
      6.2808135205201658e+01 3.4195484080729202e+01
      1.1457876130450232e+02 3.6877543583886968e+01
      1.4936225833484984e+01 -4.9298053940080017e+01
      1.1044036004501419e+02 5.9741389189493987e+01
      9.4548208513618945e+01 -6.3554649621833569e+01
      -2.7071571152588234e+01 1.2364198107086629e+02
      7.0217341457737831e+01 -9.6350553382027641e+01
      -3.7215446440714764e+01 -6.6881161082249507e-01
      -3.0574179356463812e+01 -2.5106757875245506e+01
      7.0066152549444496e+01 5.0528243683440571e+01
      -6.7725225138161576e+01 -8.8825208634599264e+01
      -3.4609777606163824e+01 -1.9976921918034598e+01
      -7.4300053663952610e+01 -6.3190428541255486e+01
      1.2180617254111073e+02 7.3367569366206169e+01
      6.7733066685395027e+00 -1.3945816749289941e+02
      -4.0047036024849994e+01 -1.4433040367385649e+02
      1.6596494911656566e+02 -2.0454499008507259e+01
      1.1585341941807825e+02 -1.4676737404621500e+02
      -2.2864592818978949e+02 -5.0764899165032674e+01
      1.3861190592814381e+02 -5.3572268454912333e+01
      -4.7482421244705009e+01 -4.4035388993284066e+00
      -1.3642605584593431e+02 4.0639308332708161e+01
      -7.4600151751974650e+01 -1.6543195443620554e+01
      -1.3222120488548455e+02 -1.3222671623312392e+00
      9.1990613178798995e+01 7.4489711266277880e+01
      -2.5204013472864609e+01 1.4859183566967769e+02
      -7.0303080065397312e+00 -8.9187156456006974e+01
      -4.7541473643453422e+01 4.7963805815566317e+01
      7.8836109260771593e+01 -3.4556346539858559e+01
      1.2752885184097141e+02 6.2861313745512097e+00
      -1.0281133018185510e+02 6.0157775337556160e+01
      1.5396476195456923e+01 9.1119118524437098e+01
      -1.1715691121086495e+02 -6.9391294575205436e+01
      1.1156068834340543e+02 -7.4564875520508067e-01
      4.2325776030985502e+01 8.3958588339902622e+00
      4.6538224941482135e+01 2.7883390294348626e+01
      -7.7001149084462250e+00 3.2870650945879930e+01
      -1.1821290391837123e+02 7.3495432273002109e+01
      -2.6083144435030327e+01 1.0575934573099802e+02
      1.6005524655149543e+02 -1.3616814116819045e+01
      -6.6479238332044133e+01 3.8979235505033136e+00
      4.8424114356240480e+01 1.5468005478114873e+02
      1.0058926470714161e+02 1.5232818874064519e+01
      1.3987378620775146e+02 -3.3816886451705721e+00
      -7.6783856671779532e+01 -5.2525809965397074e-01
      -8.2575455040584899e+01 1.1459066623871109e+02
      -1.1640880772481475e+02 3.0169441043769119e+01
      -5.1209299880692697e+01 -1.6872202432820004e+01
      5.9277725772846734e+00 5.5675864274129786e+01
      9.8839909608816097e+00 1.1603661397027476e+01
      -6.1841380189578175e+01 -7.4486552063603737e+00
      7.6975018261646104e+00 8.2174546154828221e+01
      -9.0172579741111347e-01 8.8112737388753999e+01
      2.4020867669002981e+00 1.5471354679129306e+02
      -7.7990502920223065e+01 3.4521674308367579e+01
      1.8121413156996013e+01 -3.0033212305129378e+01
      3.6374612726856029e+01 -3.7941932504403809e+01
      -7.0294069719291159e+01 1.0970573511566505e+01
      -8.5015869248362606e+01 -1.9072037636996537e+01
      -9.9104309205917609e+00 1.3945168678065326e+02
      -1.1553514416530516e+02 2.3743907997550910e+01
      -3.3343600954568082e+01 1.1109465598907825e+02
      4.5846421709960921e+01 -8.1765184597858138e+01
      3.4705281369759029e+00 -8.0735680868108687e+01
      1.2594770061778328e+02 8.1293701937770592e+01
      1.3947363333027221e+02 6.7698831424919801e+00
      -1.5943036892703057e+02 -1.9791469339626511e+02
      -2.7002525559137524e+01 8.5767251903310395e+01
      6.4165158611758216e+01 -3.9201533568197625e+01
      2.8250613757240533e+01 8.3597871302114683e+01
      1.6130757478083103e+02 -7.5267604343879981e+01
      -7.5705694963110375e+00 1.0270840553390597e+01
      -2.1490807039278685e+01 2.7882859892860115e+01
      9.8872855957019738e+01 -1.5234403151213914e+02
      3.5270184833268161e+01 7.1561268002854888e+01
      7.4286796079790065e+01 2.0346091145935535e+01
      4.0182945847307280e+01 -3.4072956543221174e+01
      -2.5699799372350299e+02 5.2054286857997717e+01
      -1.2188364560731711e+02 3.5833967007797007e+01
      -5.5615922416515865e+01 4.9837570310390120e+01
      -1.0343789680500812e+02 -1.5535308146867129e+02
      2.0833915198386695e+01 -3.7312838758804916e+00
      -1.6055420653750110e+02 -1.1099371265993099e+00
      -9.5728915854820414e+01 1.0489307725497387e+01
      -9.1404248287033326e+01 9.1328806353172155e+01
      9.0788980987296853e+01 -3.3998337502219321e+01
      -1.5521603692221422e+00 4.5027392876704091e+01
      4.4727994653281058e+01 3.1796610157447997e+01
      2.2080578898947412e+01 1.7624803807250810e+01
      7.3844015386000720e+01 2.6780792535941263e+01
      9.7531323051729004e+01 -3.2420118493483514e+01
      -3.8177739598214089e+01 -5.2326368496241983e+01
      1.6752012602216592e+01 -1.0022122655957928e+02
      4.6634002633661552e+01 7.3256827559953209e+01
      7.5546694950360390e+01 -8.9512917876191356e+00
      -1.1795505050381514e+01 -4.0377541343409142e+01
      -3.7869360075256592e-01 -9.0377778107958591e+01
      7.4803119788081844e+01 -1.1085491851649093e+02
      -5.5577821591192489e+01 1.9724480147457914e+01
      -2.6141120657555881e+01 -1.8060216953309570e+01
      1.2234256954627521e+02 -1.4346981233258879e+02
      7.5697053284532629e+01 8.6657128984295596e+01
      4.2469057137837236e+00 -3.4362104141399143e+01
      -3.9867708892245183e+01 -1.2045985799589312e+02
      -8.9291920988358015e+01 3.8138765663778585e+01
      -4.2245545384579152e+01 2.0121230573618888e+01
      8.5058782142516076e+00 -5.5416570411164031e+01
      -1.1960206311818857e+02 -6.2487541448066885e+01
      -3.0205976204087445e+01 -5.4860027965392831e+01
      3.2186094537399967e+01 -7.6237379717314923e+01
      7.8601304302575187e+01 -9.5148580792994906e+01
      -9.0113616803309128e+01 -2.0329069650593613e+01
      -1.0389139789029365e+02 6.3182597597117628e+01
      -1.4915971118522239e+02 1.2395714694358082e+01
      -7.8494082291918460e+01 -5.9292023648814478e+00
      -1.9610929323907069e+01 3.2077770423293188e+01
      6.4321018361845404e+01 5.2674950292378966e+01
      7.1593470828787346e+01 6.4797922226507936e+01
      -5.0232466404040281e+01 -1.1667827939310189e+02
      -8.2696552493632396e+01 4.7107950587777808e+01
      2.1753847690131263e+01 1.1435073878080192e+02
      2.8448549739390373e+01 -8.5820348823222687e+01
      8.4113188198069537e+01 -8.4831590207142099e+01
      -7.9791827180991550e+00 4.1467503400947678e+01
      -2.2378136864073223e+01 9.1436293745591882e+01
      4.6619117753042303e+01 -1.1825882989197165e+01
      -7.2193849083305039e+01 -1.6255268876370724e+01
      -5.2663292642719014e+01 -2.2454049860167586e+01
      2.8991453856288004e+01 -1.1246253819849960e+02
      -1.4103136985845904e+02 -6.5707152651167263e+01
      5.6990967922108084e+01 5.0175880679284681e+01
      5.5812630768564283e+01 -1.0528858852697574e+01
      -5.0809775336283330e+01 -7.7042288014475517e+01
      -2.9380397979074768e+00 -1.1968243478018809e+02
      8.0144053101543079e+01 1.1745892230176111e+02
      -9.3335657305183346e+01 -5.1772888033504621e+01
      -4.3855719361822860e+00 -9.6622169700512416e+01
      9.1286886003036045e+00 -4.4122051410429549e+01
      -1.2344998160407035e+02 -6.9455893816258865e+01
      -9.2076458164219854e+00 -6.1714948201382903e+01
      5.8913506298223865e+01 5.9990676871522695e+01
      -9.0332376089061938e+01 4.2240893184553642e+01
      8.5453843408642697e+01 1.3952057192546260e+01
      2.7117367751310766e+01 -3.3542607189803441e+01
      7.4735124330118936e+01 -1.6924966602285747e+02
      -3.5997860567407571e+01 -1.0484773742317490e+01
      6.8242780197348637e+01 9.1247434668907019e+01
      -1.3003493430545439e+02 1.4389501682838294e+01
      -7.3343910722093796e+01 -3.6531842895813260e+00
      -3.5867307887291560e+01 -1.5009724954070631e+02
      -1.2198470238447117e+01 1.9986968771328897e+01
      -5.4708567786611681e+01 1.9235480814203535e+02
      -1.5024015732194908e+02 -1.2544707760239090e+01
      -1.4075913202236575e+02 -1.4678485434295368e+01
      1.2480497510471838e+02 -7.6712631809156733e+01
      -2.2357743471746041e+01 -6.2029941358918578e+01
      8.8858198048993572e+01 2.8084371345750622e+01
      9.9317922073229724e+01 3.6793490602995298e+01
      2.7168121400696631e+01 2.0229574568232891e+01
      8.2565187589361159e+01 -1.0798806677225346e+02
      -3.0286766303752222e+00 -2.7215545196941548e+01
      4.5335332731252205e+00 -4.6026309428778145e+00
      1.0972746625395965e+02 1.8383378040736198e+02
      -1.9667546048779843e+02 2.6124622820370728e+01
      -8.9567397667201561e+01 2.3987646478021468e+01
      1.3503704922334472e+02 -6.8643556582215766e+01
      -1.2533666001430413e+02 2.8756183526713080e+01
      5.9443418996175048e+01 4.4531414210934500e+01
      7.8060859750736981e+01 -3.6876708492228602e+01
      1.4525990828007542e+01 -1.8552251293677852e+01
      -1.9116975773788514e+01 4.7359027724385015e+01
      -3.5909244591955705e+01 -1.4663828401781098e+01
      -6.3617699359927769e+01 -7.4880496857608208e+01
      -4.4712352379679260e+01 -3.9332583137530790e+01
      -2.4514537583738004e+01 3.8701011891190340e+01
      -6.1197482976525102e+01 -5.0732886329331777e+01
      1.4052923640143865e+02 -6.2816070763100399e+01
      -4.2669583832174617e+01 -3.1338996933172311e+01
      -2.1038025928850747e+01 -3.5408279352121589e+01
      -8.6523817254973963e+01 8.7624274432799055e+01
      -3.3770737536676585e+01 5.9497290064096733e+00
      3.1955179659496167e+01 -1.1973029851020068e+02
      -1.6324391814461393e+01 -1.4077938503113450e+02
      3.3248487371988723e+01 5.9556713387182867e+01
      -6.1133250314094894e+01 3.2592743351881147e+01
      -9.4380366039971349e+01 -1.7011687417268483e+01
      4.0010499013566076e+01 -9.0379730311076720e+00
      4.7483197244990016e+01 -1.8240547528495604e+01
      -1.5857931746735876e+00 4.5477378477966912e+00
      1.2806668487164364e+02 -8.0870392227121897e+01
      4.4771365899401772e+01 4.0014609624524475e+01
      -7.9899734590695118e+01 -1.6674495477984683e-01
      4.8759019029446344e+00 -1.2182473628051235e+02
      2.3225566914070321e+00 9.7865592643613169e+01
      7.5900136321125160e+01 6.1890172112913923e+01
      5.6863109005875758e+00 1.4682066677495666e+02
      8.7439298923682315e+01 1.3306341394837406e+02
      -5.1042911953536098e+01 -1.9916974576091818e+02
      -8.0202983853699365e+01 -9.7682602851862992e+00
      -3.6276504212909259e+01 -1.0836107178014686e+02
      -3.1202637348982871e+00 1.0416266098950953e+02
      -2.1870841435548783e+01 1.8868867859429599e+01
      1.4801875205908422e+02 -1.3743473188527199e+02
      -9.8447547701338166e+01 -5.6594472674982676e+01
      -5.2578667811836283e+01 1.3985041303889243e+01
      -6.8128083271540774e+01 2.8248510894903376e+01
      1.6987561456221988e+02 -7.5205574230157723e+01
      -1.1345150346408860e+02 6.0538275585638743e+01
      1.4426910243870093e+01 1.9639262103288505e+01
      5.2724813618162550e+01 9.8208437019027741e+01
      9.7029053028584386e+01 -5.8290040274425209e+01
      1.6778351951133661e+01 9.4839069731009687e+01
      3.1134562055539210e+01 -2.7391731474780720e+01
      -1.9773800188209943e+01 -4.1241992451670313e+01
      5.9207153425982249e+01 -5.5634822744190622e+00
      -6.3030778195512497e+01 -2.1355470713917860e+01
      -6.3177354875545433e+01 1.3915712208479522e+02
      1.5597622594399522e+02 2.2145893863452084e+01
      -2.4479423027474809e+01 -7.5370035451642821e+01
      1.4997343504150260e+00 -1.2833635353813540e+02
      -4.2070434699598273e+01 -4.2391589157488454e+01
      -2.5123410260641705e+01 1.0347586694765842e+02
      -1.0622506539488964e+02 -2.9800175863660883e+00
      -7.4296025397119195e+01 1.4953366053132046e+02
      -2.8809026114032129e+01 -3.6212080018470627e+00
      -2.3461749513889853e+01 -5.2449488678479362e+01
      -5.9119782634007031e+01 -4.1627182686171508e+01
      1.7020030535680121e+02 -7.2766674318610796e+01
      4.1408868603629863e+01 -1.1582599660843611e+02
      -1.2111274098472529e+02 3.6656119321802102e+01
      -6.3320000322457076e+01 6.1917474096362554e+01
      -7.8938301403804815e+01 7.8707241914243458e+00
      -1.8493632226738961e+02 -1.1516653268886148e+02
      -3.9181225141694171e+01 -3.9285498155277736e+01
      5.3124294417103677e+01 -1.2129575438428206e+02
      -2.9131322776978536e+01 9.5682301508493467e+01
      1.4547211680228964e+01 -1.2523692442344856e+02
      -7.9838161309583185e+01 1.2206590440051994e+02
      3.3183409129523746e+01 -6.9377186290217466e+01
      -5.2751833580993591e+01 -9.5302262962467132e+00
      3.6191886541385941e+01 -1.3789566406150132e+02
      1.3566179152790210e+02 1.2452774326439709e+02
      -4.4252919122974895e+01 -5.8246143404550629e+01
      5.6387653564659928e+01 -1.3314366910970017e+02
      4.6213570457231150e+01 1.3665866641121571e+02
      -3.9871910948373497e+01 5.3074512131380494e+01
      2.0721549725373686e+02 1.5651675791485084e+02
      -1.5431468586006486e+02 -1.2724311604957765e+02
      -1.1754269652460599e+02 1.9929817342425182e+00
      1.2050219298474885e+02 -6.0075300584587197e+01
      -1.1568140626783936e+02 1.1316271070293422e+02
      7.1160268826960049e+01 7.9271428683917250e+01
      1.3014092745465743e+02 -4.0212909603778527e+01
      1.1680095128084757e+02 -4.3098917343373984e+00
      2.1654582888943512e+01 2.3982267126794049e-01
      6.5786620428908805e+01 1.5300906047393525e+02
      -1.6520592402518503e+02 2.2223799605885373e+00
      7.9288553103611035e+00 -1.8969075320163349e+00
      5.8838084522546596e+00 1.1258503821741842e+01
      -6.0068416189556686e+01 5.4470817611064732e+01
      5.5571920899025983e+01 6.8792676546918671e+01
      -1.2644153614920198e+02 -1.2052779273665980e+02
      1.6204446765465324e+01 6.6046989449663513e+01
      1.6232039230817475e+02 -8.8568021908267056e+01
      -7.1509668891437002e+01 2.5061082108745175e+01
      2.2375823434975906e+01 1.2399714993043246e+02
      2.6274982343986025e+01 -2.4580158950169238e+01
      -7.8720909700457980e+01 1.9667082760168419e+01
      -1.1818045937745438e+01 1.1175127382970705e+02
      -6.6746089359535347e+01 3.7747495834432371e+01
      -2.2857339633348847e+01 1.2212876612019942e+02
      7.8140920594553094e+01 1.0847377090283133e+02
      -7.6305579634648893e+01 -7.2137745971005259e+01
      3.2207442101184526e+01 -6.0324806311956067e+01
      1.3648536183896175e+02 -2.7230154282267971e+01
      1.4016970690809329e+01 7.1453144099655319e+01
      -4.2951193569945318e+01 -2.4242931484415529e+01
      4.3730213352936623e+01 -1.2655731588266896e+01
      -5.8672635216594429e+01 -3.5580471721151000e+01
      -1.0006190661182721e+02 1.3439583259044585e+02
      -8.8169895324222139e+01 -6.5814933630572980e+01
      8.8305731940767629e+01 2.9413425895845339e+01
      -5.6940437335106175e+01 4.7838956111210642e+01
      1.1345001825807921e+00 -5.0281487599366601e+00
      3.4390773585454724e+01 2.8094275778888235e+01
      -9.1921068523474517e+01 7.9585070167038424e+01
      -1.5455669468512269e+02 -2.0436964869992615e+01
      4.4252243558088269e+00 -9.4057460488040064e+01
      4.3968581629355562e+01 -5.6997849161277912e+01
      -6.0155495027532837e+01 -1.3843916288531933e+01
      -8.7680848391926489e+01 1.1610173461799791e+02
      1.1024281017428271e+01 1.3851781529480339e+01
      1.2665254553973218e+01 -2.5696897337267401e+00
      7.4217909482484288e+01 4.1698863140552128e+01
      6.5030087120880173e+00 3.7974998058264013e+01
      1.0309927051937858e+02 -4.5812549879303674e+01
      8.1341152353500703e+01 -2.6275050344397357e+01
      -1.3975966591602823e+01 -1.1682960374095448e+01
      -5.1729712659649053e+01 4.1148860532152867e+01
      -1.8573055313001572e+02 1.4721801636416691e+02
      5.3259954459301206e+01 -4.8886119287710130e+00
      1.2062092785888991e+02 -4.8588436580215415e+01
      1.4265665306218304e+01 -8.9659848142667933e+00
      -4.5236103168776332e+01 -4.9249770059373972e+01
      -6.4394863894230795e+01 -1.4222020426149737e+02
      2.4324510132791904e+01 2.3421948585253613e+01
      -6.4351736906074905e+01 -2.6750698346518419e+01
      -6.6072039112199491e+01 -6.4850514973819671e+01
      2.8138867377537942e+01 -1.0639373650477754e+02
      -3.9509955488435210e+01 -3.7144108020557546e+01
      -6.6051150631123903e+01 -8.2800895492741127e+00
      -1.8752328052824982e+01 1.5085888699071647e+01
      1.4652712064107263e+02 -3.6953779505071651e+01
      -2.6056050053362934e-01 -1.5101789592166475e+02
      1.3083000698186825e+02 6.6359102592997118e+01
      1.0270012859737834e+02 7.0524066889811778e+01
      1.0814789729564349e+02 -6.6374238653894565e+01
      1.2243916372071095e+02 4.9129111951471565e+01
      6.1333672507667302e+01 -1.1782580873767535e+02
      1.3687042056738343e+02 8.1208733805780852e+01
      1.3208064790486898e+01 -3.9975750219287754e+01
      1.7729123250491651e+02 3.7045352707046790e+00
      -3.1257314167343026e+01 -1.8756820366679867e+00
      8.3958959106422441e+01 -6.5890705737454169e+01
      5.9801333780497451e+01 3.8488260465202508e+01
      2.1218549985486410e+02 4.4830816000520501e+00
      1.3239138200395908e+02 -1.5609285676384511e+02
      3.0982197901731098e+01 9.3420488923535994e-01
      8.6556706907421230e+01 4.6400033113613041e+01
      8.4409488188708210e+01 7.7632968360479211e+01
      3.3227515229825059e+01 -5.5263542456012139e+01
      -5.2406953884405333e+01 5.9961124859985837e+01
      1.2170692006087779e+02 7.8503106424858274e+01
      2.8105228322824249e+01 1.0516006245870740e+02
      5.2623047020377875e+01 6.8675140478939355e+01
      9.6236324449186455e+01 -2.1210746432590220e+01
      4.2502584329458969e+01 -8.2432394890586806e+01
      -8.8732838531204379e+01 8.7399072290394272e+01
      -1.2108509588065003e+02 -4.1265149550450829e+01
      -2.1876845580022270e+01 1.0684388708929608e+02
      1.6736813625117202e+00 2.1409737799854027e+00
      -9.3621994990414350e+01 -1.7640313968316725e+01
      1.2967213479330212e+01 6.2854760518665415e+01
      4.5982553657654712e+00 2.3882988483754499e+01
      4.5754515238258122e+01 -5.8622860986290455e+01
      -1.0551187747730965e+02 7.6539126250402703e+01
      2.2728590749783000e+00 -1.2427306535001438e+01
      -1.7064268474311606e+02 8.9841419536938034e+01
      8.0729519912108145e+01 -4.0589270359983040e+01
      -1.0763998603140260e+02 -1.3682956570588055e+02
      1.9015713714737966e+01 2.0210912260330424e+01
      7.4771437379750864e+01 3.7820183916562918e+01
      -9.1272071151242983e+01 -9.3057037676551545e+01
      -3.8056666561011099e+01 9.3226875716652614e+01
      6.1767754572118228e+01 -4.5630072159576137e+01
      -2.8245612835956969e+01 7.5505934379709871e+01
      4.2169375893923373e+01 1.2568621731999335e+02
      -1.3237220000684120e+01 7.7333305696369763e+01
      -1.0276076250147267e+02 -1.4126826241604089e+00
      4.2262028999789571e+01 1.4584961445447141e+02
      -1.4937969078345955e+02 8.6339314327528228e+01
      -5.8234444874294084e+01 2.8182675574322861e+01
      4.1077599328348427e+01 -5.9982492430188984e+01
      5.1283269279546246e+01 -4.9156398024854695e+01
      9.4125459028884990e+01 -8.5995456905873525e+01
      1.0084168192728673e+02 7.8881795650902617e+01
      2.5700929186740908e+01 6.8230437733681564e+00
      3.0055328040404760e+01 7.5610352524693214e+00
      -8.4012958033254066e+01 -7.0430454516007146e+01
      -1.7960206982855911e-01 -4.2546779581035736e+01
      -7.6584845388087395e+00 -5.6250706617958173e+01
      -7.6823672839936961e+01 -3.5996372638874682e+01
      -1.4682733782773479e+01 3.2692440290006935e+01
      1.7008200568997637e+01 2.5137291010470893e+01
      -9.2881870612401812e+01 3.1343789252389005e+01
      4.4373072955367213e+01 -4.5882117274575037e+01
      -1.0636938422940949e+01 1.3608780918936114e+00
      1.1877738000921094e+02 -3.2748264473115483e+01
      -1.3438049444165888e+01 -3.7801152721994988e+01
      3.1813389739385812e+01 5.1925905744348455e+01
      8.3212997782108289e+00 4.9917387256726336e+01
      6.5981499940952759e+01 -5.1084642885541491e+01
      5.4622316011370465e+01 2.4525012408094966e+01
      1.2439882250425224e+02 6.5705629322593417e-01
      -1.1687300749846072e+02 1.3655530612164225e+02
      5.2912769958780084e+00 1.0960765073848368e+02
      -2.0568825467786056e+02 -1.5950538677665227e+02
      1.4758107477429382e+02 8.4921995538694208e+00
      -1.8960231994519956e+00 -1.7072076453428441e+01
      5.8390858629753097e+01 1.1790281086949005e+01
      -5.4436122421322381e+01 4.8282951470995009e+01
      7.6172609259219158e+01 -7.6510683156009989e+01
      1.6048846000976759e+01 -9.8611839144111713e+01
      1.9413832344896193e+01 2.7084173556019689e+01
      -6.1449223323423759e+01 -4.0031719262187551e+01
      -8.6081276873093742e+01 -3.7695523284074270e+01
      -6.0253955310236428e+01 1.4044583225687470e+02
      -5.1128178140548805e+01 -2.8741811252060831e+01
      2.4186863099209145e+01 1.6814298260009949e+01
      -2.5169139010110744e+00 -6.5114904954653227e+01
      6.4298943099766589e+01 -3.1461315808638119e+01
      -1.9284643347180772e+01 4.2422259087824578e+01
      -3.3768347432745337e+01 5.1241981138122794e+00
      -1.9538651239322235e+01 -2.9272605689962393e+01
      -3.9934385601555867e+01 1.4807854169930541e+01
      -1.0711252078266291e+02 -1.6125633990664065e+02
      -5.5400745754982935e+01 -1.8041645953656598e+01
      8.9156216465635893e+01 7.1812012241006116e+01
      1.3651041127331505e+01 -5.6376343473172177e+01
      -6.5567319021765629e+00 -1.9223009632578457e+01
      -7.4180712266809891e+01 5.4125537641342252e+00
      5.1521938694582381e+01 -6.4463911478498105e+01
      3.0752192575524131e+01 -5.9096643587204547e+01
      -1.3732149954420835e+01 3.7208366628261692e-02
      7.1760055730808020e+01 1.1553149616464623e+01
      -1.1199978127815299e+02 1.1168988343865270e+02
      -1.5966760394967989e+02 2.1595607171918822e+01
      -7.6275927500396449e+01 -6.9476647499073380e+01
      2.6781551310929938e+01 6.1360634921998852e+01
      -1.1855318463209001e+01 -1.0686347002083123e+01
      -8.5016610580159224e+01 1.6562001070824513e+02
      7.5735041403276682e+01 1.7766425682613843e+01
      -7.1906000377760094e+01 -5.8094972492844015e+01
      -5.3106392928735524e+01 6.6717191430325073e+01
      2.3713753554228951e+00 -1.2877864426765143e+01
      -1.3081057121444323e+01 3.2861726214987719e+01
      -5.4148090501751746e+01 -1.1117869139063329e+01
      6.8573650835811620e+01 1.0085778717226111e+02
      -3.7245851710154092e+01 9.7148244280722494e+01
      -1.0633898238155936e+02 1.1615414133229008e+02
      5.5178821249812223e+01 5.4266303701366546e+01
      -1.7313077906438423e+02 -3.3096804504691106e+00
      8.6423704953221559e+01 -1.6953541964931149e+00
      -4.0349513268766849e+01 -9.0271584968326366e+01
      7.7594403378851680e+01 1.6300594361731832e+01
      -8.5071146737436862e+01 1.1886586582316633e+01
      -8.3330206946219093e+01 9.0834929444340403e+01
      4.1175615538044397e+01 1.1598504688514757e+02
      3.4197040462942013e+01 2.6509313540648616e+01
      2.9419926229800502e+01 -2.7793432188228032e+01
      2.1880097315679066e+01 -4.5876043619840075e+01
      8.9136858641195843e+01 5.9230734104655156e+01
      1.3019709257333221e+02 -4.9769753086097941e+00
      -1.6636944691571708e+02 -8.0753888982836060e+01
      8.6239188272714813e+01 3.7097270681906181e+01
      2.4989088777893798e+01 -7.0979189320337355e+01
      4.9020221220875975e+01 4.0262947889503906e+01
      -7.8276860811204045e+01 5.0257834513585223e+01
      -4.6072284437267903e+01 5.5478213014323934e+01
      7.5458193663665924e+01 1.3548805993024466e+01
      -2.5542163463654965e+01 3.3119364337522981e+01
      3.2148118514066880e+01 -6.9844444039193604e+01
      3.6718367004532404e+01 -1.9275002913923450e+02
      4.6649455654729771e+01 -5.3093628314789086e+01
      -6.2161203861374403e+01 6.5311385456602324e+01
      6.8823205388189081e+01 1.2979697241645528e+02
      -9.1653570721278214e+01 6.5456427827771776e+01
      3.4257225731677060e+01 -3.9000300292181286e+01
      -2.2463437658937359e+01 1.0390957217933313e+02
      3.3090725665533498e+01 -8.0108467466204743e+01
      1.8804023812655391e+01 9.4406388680049602e+01
      1.2554596147222301e+02 -6.0076395181007634e+01
      -5.9268905477001880e+01 3.1321909519776863e+01
      -1.2148942053966384e+02 1.6482942399668386e+02
      3.2665000098707594e+01 1.4896232183740410e+00
      5.1217649956060747e+01 -2.3031676055645107e+01
      7.8642383458750970e+01 -7.1103780018275330e+01
      -3.5005738613989507e+01 3.3337420240770200e+01
      -5.9224622664828559e+01 -1.5777094836573818e+01
      2.0321534270731139e+01 2.6555077795224118e+01
      -7.8488246603086125e+01 2.1692134802660171e+01
      -3.2994815248266519e+01 4.2816916703862780e+01
      3.8125074027259956e+01 -5.8009161201926233e+01
      1.3957558476466364e+01 6.8198870096039471e+01
      3.6416538585547876e+01 -4.8289006829952520e+01
      -1.2506605492670816e+02 1.3806167940552470e+01
      9.4559097716443247e+01 -9.0208747749728833e+00
      1.9123876202925086e+02 -9.8923489964606745e+01
      -3.2650686315717799e+01 1.7658458748486147e+01
      -5.9597916313484426e+01 -5.6963251796648031e+01
      1.1615941390599171e+02 1.9599425006613529e+01
      3.9568597015476250e+01 1.0641870996447958e+02
      -1.1050223969523451e+01 -9.5750375601424849e+01
      1.0002079750927541e+01 -2.0549525066387235e+02
      5.4149578468190590e+01 6.9271419399978711e+01
      1.2178632127742358e+02 1.8232474286500796e+01
      -4.2373849032442997e+01 1.2739622402505674e+02
      -6.9762722644326999e+01 7.1962174076645908e+01
      -3.9530077787314667e+01 1.3294988315108155e+01
      1.6690042374443283e+02 -5.3167740603614924e+01
      8.0893720394804198e+00 1.3227740238765961e+02
      -1.0150241297547306e+02 9.7985512283463549e+00
      -8.2091569685934573e+01 6.9222275753364158e+01
      4.1779305785423858e+01 -1.4213031234624562e+01
      3.9135766137459285e+01 5.4263690055630178e+01
      1.0276669971432798e+02 9.6540479692839654e+01
      6.7822638489751242e+01 -7.3773899036449308e+01
      4.5910658685239099e+01 1.1151708173017524e+02
      1.7625561898467115e+01 -1.2474577809122524e+01
      6.9453375227078837e+01 7.9802406115895124e+01
      -1.4064471243019423e+01 5.6304954309697898e+01
      4.8883781295489804e+01 1.5458420439654572e+02
      -1.7459325782861956e+01 4.2507397385385728e+00
      -4.1214676768730541e+01 -1.6713637784667018e+01
      9.2439986912542143e+00 -7.4275972315493746e+01
      -3.4764378337165255e+01 -6.7710462317831839e+00
      3.1498189034869963e+01 -8.2103619687538540e+01
      1.2832662425635172e+02 -2.9356114411413312e+01
      -2.0161541823996512e+01 1.2243404884937701e+02
      1.2430726063945860e+01 4.4930628065635558e-01
      -1.2559716747518374e+02 -6.2302658075458304e+00
      7.4655666155538498e+01 -1.5661322367214929e+01
      -5.9948767345988308e+01 3.2419535153211214e+01
      2.2937244154318737e+01 9.6221100659896180e+01
      1.2574386356388696e+02 3.3744425237714118e+01
      4.8418300932915926e+01 -1.7482512946988462e+02
      8.7637491599532737e+01 -1.1367159064897077e+00
      3.2567119541045145e+01 1.2139747031588789e+02
      1.0355696076438258e+01 -7.9649033159468274e+01
      1.7490032676149076e+02 7.3427685408293499e+01
      -7.1762087157334022e+01 5.6365747371184128e+01
      1.4526015692859198e+02 4.1966980334703067e+01
      -3.5490523585185656e+01 -4.1833616660433911e+01
      -9.5833659118873683e+01 4.5695534969471844e+01
      5.6822014887544718e+01 1.0041940629134639e+02
      -1.4021043744013591e+01 -1.1118099689803378e+02
      2.2077163337310077e+00 6.4076589031514359e+01
      4.0897633425087655e+01 2.3601916886039124e+01
      -1.4169915138641224e+02 5.5478303756663728e+01
      -3.2587767651759125e-01 5.1620234806528877e+00
      3.3222291719481248e+01 -1.5813339920368245e+01
      -3.4226105309265208e+01 -5.2533712358538168e+01
      -5.1817111487150981e+01 -1.4367329637760773e+02
      -4.3495804984625302e+01 -1.0501707829534978e+02
      -1.9035924414730712e+00 -9.3056382120887832e+01
      -3.1792819627633410e+01 3.0830299227985087e+01
      9.4305136182339538e+01 6.6760067851049854e+01
      -7.1382208962738414e+00 1.1035998261517203e+02
      -7.3702109954981751e+01 9.2559736505086960e+01
      -6.4539051357798812e+01 -6.7648024901983362e+01
      -9.9757117591844150e+01 6.4323493818748247e+01
      -6.9938191250779003e+00 6.5350211344503450e+01
      -3.1206470645015973e+01 -3.4590111339857728e+01
      1.3283435272377035e+01 2.9956903963443789e+01
      -8.3048867475004499e+01 -4.9442156387994686e+01
      1.2725958331360367e+01 -9.0995795810393261e+01
      8.4955733976396431e+01 -1.1795708517066311e+02
      2.0753029303171729e+01 2.9530574507701417e+01
      4.0200269429505532e+01 -4.8264434952785699e+01
      1.0024265467083316e+01 6.9925208253540674e+01
      1.1170268305269614e+01 -1.6774137153582068e+01
      -1.3191045954913731e+01 -8.4270533951027801e+01
      -1.0660999811373773e+02 -8.6743800875604578e+01
      -2.7586806098622944e+01 -5.3663156654176184e+01
      -4.0570980008387089e+01 -2.8284308504972056e+01
      9.1466787500401860e+00 -1.6857254324037251e+02
      5.1179648925161551e+01 3.3888311958214871e+01
      -8.5520110160027272e+01 7.3266373832452530e+01
      1.1554227996478942e+02 1.1103172161483627e+01
      3.0757628188080524e+01 6.6472229988202031e+01
      -2.2791855452464731e+01 3.9335855199406247e+01
      -4.7673016958431745e+01 5.9405941049566465e+01
      8.6403140441012425e+01 1.5528162381860921e+02
      5.8331431227846309e+01 4.7309987136962647e+01
      2.1178847468445166e+01 -1.8324296539694345e+01
      6.9930285115066127e+01 -2.4898461936182141e+01
      -5.0144447166226435e+01 3.0078473639886553e+01
      -4.3684231129121486e+01 7.0183116623088893e+01
      1.8222800681874324e+02 -4.0987893773569986e+01
      -4.9142631022137884e+01 -7.2972353739565889e+01
      -9.2157177696178181e+01 -4.6930917544736666e+01
      -1.0584037874956290e+02 -3.4783874173231830e+01
      8.3219968879929581e+01 6.5164332984743780e+01
      -4.6278634453482388e+00 1.6918626353736670e+01
      -2.2911498783417333e+01 3.4825390812059631e+01
      -5.3790174581918642e+01 -2.1002689048245102e+01
      9.4094654874612775e+00 4.8489961685266039e+01
      1.2210530193524354e+01 7.2245448316632974e+01
      -7.6069021197650045e+01 -1.4129862729860113e+02
      4.4117616061265487e+01 9.6868084042089521e+01
      6.3288112168595895e+01 3.0379676343598927e+01
      1.1349674614066440e+02 -6.5822427041728169e+00
      4.4144745985894991e+00 7.5760730070949393e+01
      1.9057068068156532e+01 -5.9313066902706730e+01
      2.5084589579944300e+01 -1.1684444726832766e+01
      -5.4030477166339878e+01 -3.7292573127783960e+01
      -2.9900171814790788e+01 -3.8984219380800525e+01
      4.5529519502508094e+01 1.7111303742353527e+01
      1.4826518768506963e+01 3.5329037275977811e+01
      -6.0276716530216312e+01 -6.9229525839131199e+01
      4.4964902819732416e+01 -8.7204329624776179e+01
      -1.3491424418302449e+02 4.4816150321894401e+00
      8.8669513801686062e+00 -1.4810465692167240e+01
      1.9493234114470841e+01 6.3345304823727417e+01
      1.2329903598319299e+02 -5.3689787914417806e+01
      5.1097905582954022e+00 -2.2659063300928047e+01
      6.8981878875204487e+01 -2.6316746695105819e+00
      -8.2826072637205243e+01 -8.3710767251294484e+01
      -1.6818523071776969e+01 2.5374978676351418e+01
      1.1669498404315998e+02 1.0428456796020026e+02
      -9.0566815087448930e+01 -2.5104688016437020e+01
      5.2538566814171375e+01 -9.8360641073667310e+01
      -9.7448799150601971e+01 -4.2773332175770324e+00
      -3.5588005958361180e+01 -5.3526425727131461e+01
      -1.0633286668427786e+02 5.5925411707046806e+01
      -9.7347787446867340e+00 4.8036992758067072e+01
      7.4063170426085572e+00 -6.2733015481287202e+00
      1.5836765359122850e+02 -1.0235322583693251e+02
      -1.6894976653020869e+01 -6.0381148066126173e+01
      7.4870532779109325e+01 -1.1624463361747082e+00
      -2.6097103062389156e+01 -5.4308758499972489e+00
      -1.2709658775175050e+02 5.4747824034943207e+01
      3.5186555708002636e+01 3.3779498067301290e+01
      -1.1704461683826262e+01 -2.6279660347978453e+00
      -9.7381459222090587e+00 3.2371194382414316e+01
      4.7987240416452579e+01 2.2171617570660892e+01
      -2.9291025026238859e+01 -4.5022229640640013e+01
      -8.4373291756783459e+01 1.0123798179948096e+02
      3.5907762397763157e+01 5.6168042363866213e+01
      -1.0938426424259006e+01 5.2962794789034852e+01
      -7.3777515922911135e+01 3.4866638970682800e+01
      9.7701341277703193e+01 7.2647216833202449e+01
      8.9203153106514199e-01 -5.2111473695834931e+01
      1.1119705583053821e+00 5.0529935517123896e+01
      3.7908231444424878e+01 -2.4378484614428949e+01
      1.7895284220710064e+01 4.3577322876211838e+01
      -2.6643540894522300e+01 -7.5260851973434100e+01
      1.1915064768374666e+01 6.0042515361438589e+01
      -6.5665507127062952e+01 -1.6402397139375061e+01
      -9.5035287480239333e+01 5.7198297603705470e+01
      1.5700683027025393e+01 -2.3133830058922609e+02
      -1.0470841907872851e+02 -6.7301382502853686e+00
      -1.4097537913091100e+01 -3.1801384207888223e+01
      2.4713109281897601e+01 1.2070059922658341e+02
      1.8769047378988009e+01 1.0341870626745624e+01
      -5.8882116336585241e+01 3.5556030799868736e+01
      5.3167425805996089e+01 7.1458285357146153e+01
      2.8074778739954924e+00 1.3734138173074653e+01
      -3.3014781779762771e+01 -1.2544115215855206e+02
      -4.4903779912404858e+01 -5.6161385537620980e+01
      -4.8879432599151151e+01 -7.8580578529655618e+00
      7.6123658412140728e+01 1.7787065405326423e+01
      -5.1297848124399046e+01 1.9002655270477196e+00
      -3.9977354629665349e+01 -1.6794819152633478e+00
      7.0462991031945172e+00 -1.0078699511793170e+01
      9.4554633941124777e+01 -5.5336498740754827e+00
      4.9012705904074984e+01 6.4901459635378075e+01
      6.2440773260223736e+01 6.3870968711212264e+01
      -2.4804370474392663e+01 -1.6827341552086516e+01
      -5.5670838633405431e+01 -1.0334329654278808e+02
      2.3149900479465053e+01 -3.0675186717992364e+01
      1.1703589384272538e+01 1.0512997739718816e+02
      7.7948164832578044e+01 -1.2434512947859458e+01
      -4.6871711600972006e+01 4.0510451059772933e+01
      -9.4157355567367446e+01 5.7561464707183232e+00
      -7.1562081284968272e+01 -1.2927031124881231e+02
      -2.4961114913357825e+01 6.3795198880355059e+01
      -5.5293164803049990e+01 9.4214828054257591e+00
      -3.4794510809339187e+01 4.5073362977076457e+01
      -1.9314607438726359e+01 1.9526140940176447e+01
      -1.0685344973384919e+02 6.3733357944163032e+01
      -1.3823535167074067e+02 -1.6921939347174010e+01
      3.9324185150523377e+01 -9.8168795557806533e+01
      3.6259879008507383e+01 -4.5437679576428231e+01
      -5.4825519056461715e+01 4.2063639472894650e+01
      1.7236086370805089e+02 6.1289888849932773e+01
      3.2754872196454798e+01 -7.9451716116468290e+01
      -1.8148216438799626e+01 7.0482913637793089e+01
      6.3662243796852330e+01 2.6158837255283437e+01
      -1.7310101875104320e+02 2.1999655275398034e+01
      8.2232124775913407e-01 5.3094849267862698e-01
      -1.1297128323254913e+02 2.2856719002024274e+01
      -9.7495968266400325e+01 -1.2050069368479321e+02
      3.6302833902832361e+01 -1.1589351689841632e+01
      1.2758057453305786e+02 -6.5198382142123791e+01
      1.4702912632695077e+02 1.1006818013128731e+02
      -1.1705726109106844e+02 -3.5597941523250803e+01
      3.3154718100497234e+01 3.5794557376365503e+01
      9.1384959224725748e+01 -7.0366849377230025e+01
      -2.7424377311440193e+01 2.2152817409682889e+01
      2.4819858763314883e+01 9.5703250846506265e+01
      3.6319096154593716e+01 -9.7418670724388235e+01
      -7.1128048402031880e+01 4.8616394066484084e+01
      -9.0735914085132023e+01 -1.4761401834746283e+02
      -1.2162086325222337e+01 1.2041050760458219e+01
      4.6208547082597207e+00 5.2459233901665755e+01
      6.8601030748670340e+01 5.6101107039027582e+01
      1.1608584560239323e+02 -5.3404585188036911e+01
      3.6035399152294829e+00 2.7982862352652131e+01
      1.1786825606862334e+02 -6.6561733480359777e+01
      -7.5749085520852006e+01 -4.7722611529101826e+01
      2.2195778692011604e+01 -5.4632329568367783e+00
      8.7607432310033019e+01 1.0011086932639574e+02
      1.4702745329540417e+02 9.9570966464680524e+00
      -7.1590568369641360e+01 -6.7299158820996666e+01
      -7.8706463323855687e+01 9.5879240756723249e+01
      -5.2926734841483210e+01 -9.0855966385670726e+01
      5.8440371232119347e+01 -4.4383497249287815e+00
      6.1665835150987647e+01 4.9359935197703486e+01
      4.6068984974572238e+01 5.5210292413078101e+01
      5.5342393632962519e+01 -2.2025836240558206e+02
      -1.9227842120248971e+02 -4.9013952047407763e+01
      -1.2340607286319640e+01 9.5088155945389730e+01
      -2.3715443566544515e+01 -4.1793473793978343e+01
      -1.0005276768438537e+02 1.9567183010682182e+01
      2.7901156273748086e+01 -3.9808246089221299e+01
      1.1326712026710659e+02 -7.8628099464624093e+00
      5.3598166603578029e+01 -1.4500327282552939e+02
      -1.3606666339014039e+01 -1.2749919348758672e+01
      1.2401046983323829e+01 1.5040217839168809e+01
      -1.1888667310264005e+02 -6.7638457147411060e+01
      -2.9509470795363402e+01 1.3468371723868273e+01
      4.1246129986857838e+01 1.0207493427365557e+02
      -1.2540589912801034e+01 8.9765462832008026e+01
      1.9345763959905963e+01 -2.1225268924848304e+01
      4.2126776384225373e+01 -1.0553452373498102e+02
      -7.2793910879996304e+01 -9.1226175516335246e+01
      3.2625414793848620e+01 3.7860631798107249e+01
      -9.3872671444994026e+01 -1.8933447653074591e+01
      -1.1379164176144744e+02 6.2115978017357044e+01
      8.8378210589467869e+01 5.6274777992657530e+00
      -8.1748613825137099e+01 -3.7982512508177679e-01
      -1.3271726677773063e+02 7.0631710719856756e+01
      1.7653422768735032e+02 7.0966311044345545e+01
      -6.8147381511130050e+01 7.2878021251647183e+01
      -9.1818464416970191e-01 -2.7984119009964807e+01
      2.1796556036962662e+02 1.6452895981206396e+02
      1.9463313002696328e+01 -2.1554381449728265e+01
      -5.4889185291133970e+01 1.5788722742184811e+02
      4.1885855128446345e+01 -1.7702412225811955e+01
      8.0652147993490843e+01 4.7747641023609688e+00
      -3.6040887323139131e+01 -1.3536158021594835e+02
      -2.8238732747904198e+01 1.4734677586224507e+02
      -1.8330346163040765e+01 -2.4670396729033747e+01
      9.4811995191223332e+01 1.0069079108732389e+02
      -6.2201979699814807e+01 1.4001066946215212e+02
      -4.0607922857482599e+01 -3.0428497076090917e+01
      6.4257103523360314e+01 7.9755702139971149e+01
      5.5419481101627454e+01 -1.1052246189370086e+02
      -1.4225033024405539e+02 -2.8626445734298478e+01
      -1.1971417978369404e+01 -5.6508091807961911e+01
      3.5117867020706730e+00 -1.6261700547475082e+00
      -7.8878312727334546e+01 -9.5956870540298212e+01
      4.2375966266636787e+01 -7.7306760919733662e+01
      -4.4792735576339780e+01 -1.1833555576497830e+02
      -9.1504063828535337e+01 -2.8088202223765087e+01
      -5.7966265415848575e+01 1.9012145149201253e+01
      3.4372979124241176e+01 -6.8571798794073203e+01
      -1.9177341002832783e+01 6.5467755935793335e+01
      -2.2250771381518537e+00 2.6471668228866573e+01
      -3.3096966195071815e+01 3.1439772053404770e+01
      -4.2076745758125078e+01 -1.3715026432575672e+02
      3.7876448301929067e+01 -1.2828331589061398e+02
      5.1315071715879931e+01 -7.3705418724511219e+01
      -3.9253624343418565e+01 4.0865775261840440e+01
      -1.2855664455255189e+02 1.0229725221205213e+02
      2.8725130513052242e+00 3.4391921348908532e+01
      5.7431942242642428e+01 7.6959020944905419e+01
      4.4265500185348664e+01 7.8141292234980542e+00
      -1.0052624523591606e+02 -1.6931524410764428e+01
      -2.3178783628498927e+01 -6.7887276338217688e+01
      2.8140544766374509e+00 9.1578566664591150e+01
      9.7497737579893965e+01 -8.3919214424672761e-01
      -8.4941433146125448e+01 7.4173812100198546e+01
      9.2294946260109441e+01 1.5388865357210790e+01
      5.8107001129573767e+01 -4.1003163761774871e+01
      -5.3690341392152149e+01 -9.2535796969430933e+01
      -1.0841062853741654e+02 -9.5831569087464189e+01
      -8.4515303845363150e+01 -2.4504638744690833e+01
      -6.6808231660440583e+01 3.7506428216142247e+01
      6.1729946930439070e+01 -7.7321251708042439e+01
      2.6325324923659309e+01 -4.9679914122221710e+01
      -1.2352988529620804e+01 -4.1842347430898037e+01
      4.1476056822042935e+01 -5.2238080893852477e+01
      -7.8127198583495314e+01 5.4314180698044744e+01
      2.2698030056842104e+01 -1.1116785639312262e+02
      -5.2602589501198587e+01 -5.5380263755682407e+01
      2.5869238236370322e+01 -1.5015961874846681e+02
      2.8560089959020292e+01 2.5537493845136680e+01
      -1.8441538574810991e+01 -6.2751038669217166e+01
      -7.9912197352419795e+01 8.2594507400147947e+01
      6.1013543823220523e+01 9.6097683357412267e-01
      -3.6883976844071427e+01 2.8001140699037663e+01
      2.3796073875156491e+01 -1.2495084676558807e+02
      1.0436465625564345e+01 -7.8352032715206022e+01
      1.7238454980414396e+01 7.6389300684697417e+01
      3.4332269908589375e+01 -6.3560299038465729e+01
      -4.3450980648035724e+01 1.0033650330200057e+02
      -2.5377810503784609e+01 -4.4868202896938293e+01
      9.0569552677252805e+00 -5.5405034992215816e+00
      -5.2649069378082274e+01 -6.0650752563801023e+00
      1.9596219242254129e+01 2.4623978361641758e+01
      -6.4892603922466421e+01 2.3443511084137761e+01
      9.3749110251613416e+01 -2.6369693327385274e+01
      8.3079249836626460e+01 -1.3307968029215962e+02
      4.1156333269195478e+01 -1.1001983180776911e+02
      -2.7343710884320938e+01 -6.9591338831456326e+01
      1.0644725078920166e+01 2.4541352547670918e+01
      -2.8322398063380547e+01 -1.2060386440260316e+01
      -2.6054325993493691e+01 -3.1402334182460496e+00
      -1.8573794939923286e+02 -1.7073435936348023e+01
      -4.6220409912156072e+01 -4.6111427551653868e+01
      3.4587952603834893e+01 -3.6251492888392484e+01
      -5.4570162504032913e+00 1.6305621271021789e+02
      -4.6692915818497859e+01 -7.0234428254511030e+01
      -5.7937345340584841e+01 -6.0194726145627492e+01
      1.1915257179176673e+02 -3.7176294191540848e+01
      5.3207589172357672e+01 7.0169241945152677e+01
      -4.9402041581811105e+01 -4.0892337359153835e+01
      4.0568949708912116e+00 1.1376710834105705e+02
      -1.9471285788461694e+00 8.4329015289345364e+01
      4.0675922406851235e+01 1.9182917122711538e+00
      -1.1690149535660707e+02 -1.1695934080640218e+02
      -1.4419681827828217e+01 1.8291471898557987e+01
      2.1005559222729926e+00 -7.2206860394815138e+01
      8.6304875718569356e+00 4.8678424007275476e+00
      5.0683865916452298e+01 4.3040288345461960e+01
      8.1167064519562686e+00 3.1962035243127190e+01
      7.3845411482552421e+01 -7.5572848201375606e+01
      9.2411653829931666e+01 -5.8499968192620244e+01
      1.8323756367407018e+01 -6.5903463674408002e+01
      -7.9242180103094526e+01 1.2284170565903104e+01
      1.1796394002884796e+02 -1.7416133882335206e+01
      -6.1631308413140708e+01 1.0660133276738463e+02
      3.6508833238925263e+01 -1.2055546097859929e+02
      -3.5097340200534802e+01 7.1446789444586656e+01
      -7.4594740854936621e+00 1.3974265472283571e+02
      4.2404431069077290e+01 -1.3069746330104243e+02
      3.7336640522714184e+01 -9.1839739211806233e+00
      -7.5803671456462055e+01 -5.8536592348368913e+01
      -2.3119706547295436e+01 2.1871185850493291e+01
      3.0737358036913598e-01 -9.6727093656903648e+01
      -1.5624395902348907e+01 4.8042546035301832e+01
      4.4706152551471376e+01 8.8555100022320801e+01
      2.5863009986551415e+01 1.7430929659980130e+01
      -6.8829620549571857e+01 -2.3227245959432903e+01
      4.3925376864928559e+01 6.9212295467856052e+01
      -5.0948275096057245e+01 6.5456579397646294e+01
      1.8340577826673968e+01 -5.8266490222991642e+01
      -1.7806055529730506e+02 -4.1778812784355686e+01
      3.0116446240334433e+01 -3.1578330770614166e+01
      4.5404755241767745e+01 2.1460532662510403e+01
      -2.6925010812784627e+01 4.5088594170604573e+01
      5.7032712219266656e+01 -1.3095805449001148e+02
      3.8438393585958920e+01 6.8570602575371879e+01
      1.0511027986432582e+02 2.4835237240634935e+01
      -8.8588572223182624e+01 2.8258937368742963e+01
      -4.5540567897161942e+01 -6.6285043638237397e+01
      -3.6453788738488093e+01 -1.0828149001351559e+02
      3.1218903928102937e+00 1.3451575952592904e+02
      4.5264340309459271e+01 -2.0674422286150115e+01
      -6.4447797301249665e+01 -4.5172861036891327e+01
      -1.3107909254295924e+01 -8.5234837213024175e+00
      8.7655161993537703e+01 4.0981645956357717e+01
      1.5751534091311028e+01 -8.3930488232815307e+01
      4.8894310933510823e+01 -5.1802155709772407e+01
      4.0897893637164252e+01 1.0505181383400593e+01
      -7.9996426099209430e+01 3.6757550401151150e+01
      1.3514501987934787e+02 3.9854165299284865e+01
      -7.5483717292511997e+01 -9.4826595495111889e+01
      -6.5075288951351311e+01 -4.5044524396032585e+01
      9.9613500580736101e+01 -1.5157709918286372e+01
      -4.6342482421826560e+01 1.0021233148560353e+02
      7.2269470237632504e+01 -1.4648263511634878e+01
      -7.2585204788180437e+00 -1.0535244155469282e+02
      -4.5104241064106603e+01 4.4250523031154408e+01
      -7.5110093349993960e+01 3.0892065727410543e+01
      -2.7471305533699898e+01 5.0832718909355521e+01
      2.7069498147901916e+00 -9.0545167444175618e+01
      -1.8588029423563356e+01 1.0233701591294798e+01
      -4.2407779534187704e+01 5.1168446468859976e+01
      3.4235799778394565e+01 -6.4987528180896149e+01
      1.2076002511424747e+02 -2.0081509607888808e+01
      4.6980107860674217e+01 -7.5596532664803178e+01
      3.0557771554692291e+01 -5.6173308395605019e+00
      -2.0079342291222574e+01 -8.0289228210602059e-01
      -2.6699859475376794e+01 1.3986898405131137e+02
      4.9643458989612043e+01 3.2331683759832359e+01
      4.9409242627141666e+01 5.8125588444501581e+01
      -1.9102820466615238e+00 -1.5596191044421573e+01
      -1.1489199925103874e+02 -3.6458439634747464e+01
      -7.5907352343996948e+01 -2.2484972996460169e+01
      8.3949093084489093e+01 2.9927461552374762e+01
      1.5017718114476311e+01 -7.8345110288799731e+01
      -1.0505388619783288e+02 -9.0452759882955732e+01
      4.8349196492469964e+01 5.4308652630935811e+01
      9.1723090694873690e+01 3.3186079589164017e+01
      4.5288522636573425e+01 1.6035085001742960e+01
      5.8069137512876260e+01 -3.1854087539578639e+01
      2.0166615797395075e+01 -4.5738043273199601e+01
      -3.7562591763488101e+01 4.0374614522121696e+01
      5.8587239575993479e+01 -6.6661817039370405e+01
      -5.5537277831746806e+01 5.6618914141479981e-01
      4.8530309143275325e+01 -2.2810746630158512e+01
      6.7030650630006562e+01 1.2921651736270050e+02
      -4.9632911180739633e+01 -2.0864563949708444e+01
      1.1272022008080162e+01 -4.0141865563500268e+01
      -1.1389204529288202e+02 1.6660374960145528e+01
      3.5226151255639988e+00 -3.1123437115570627e+00
      9.4270422315464714e+01 9.5776009356905362e+01
      -1.0975949145862335e+01 6.8505702681567541e+01
      -2.5977883773991884e+01 1.0074320245223375e+02
      1.5716230121193453e+01 -8.6043297909613500e+01
      -4.6724234378723239e+01 -1.0916127900149435e+02
      8.2817652417772827e+00 -2.6956418134518664e+01
      7.3646502947474097e+00 2.8220402923705290e+00
      6.4991608917637336e+01 -1.7972683736156213e+01
      -6.4068821480794185e+00 3.9545075751140313e-01
      -3.4259815425320078e+01 5.5839780720332776e+01
      -9.1137411923414184e+00 -7.5837608274212300e+01
      2.7471052564400438e+01 -6.6532694125456359e+01
      -5.0593621918276980e+01 -7.6964779239022832e+01
      -1.3976317060506926e+02 -1.2591398695815846e+02
      2.7569815229208498e+01 -1.5016010823790507e+01
      7.2420835200066406e+01 1.5425947075025454e+02
      -6.1362211828036749e+01 -1.4156948050440084e+01
      7.2046887624716135e+01 2.8136924205476589e+01
      4.9348783786249584e+01 1.8589221226880856e+01
      -7.9077296679148390e+01 4.1290256535209416e+01
      -1.9839866822825208e+01 -2.0925890398836067e+01
      6.6112910949175813e+01 -5.7689401712265969e+01
      -2.8613635604110570e+00 -2.8619910075704549e+01
      1.7013127742598658e+02 1.0012917321510467e+02
      -2.0193305877422905e+01 -7.4815611907109698e+01
      -2.1613082160110203e+01 8.0375574125518327e+01
      -6.8868351463746833e+01 -1.9826719294964741e+02
      -9.2293429472716095e+00 3.0946782731534309e+01
      -3.1028269077340202e+01 -1.2148296535643412e+02
      1.2654383194394894e+02 -9.9328323282404405e+00
      -4.5315108171735773e+01 7.7731538970378821e+01
      5.3076010677024783e+01 4.4121871798941186e+01
      1.6195565015479133e+01 5.4352942228294188e+00
      1.2852527114809465e+02 -7.8250381739296515e+01
      7.8509026743868716e+01 -3.8090056168550639e+01
      4.4849873407444811e+01 -3.4912434690013626e+01
      4.2183419894543540e+01 5.2358140743179483e+01
      -7.3624217801354845e+01 -1.2667095960538830e+01
      -3.0262653960676253e+00 5.6924076283157980e+01
      -1.1416732462437521e+02 1.3185473344960926e+02
      6.4165718501078743e+01 3.7125619759758042e+00
      1.0588365572957673e+02 2.3383910387001514e+01
      8.2943251544493748e+00 -8.6975705209066930e+01
      -7.7641655972956256e+00 7.2880617238888178e+01
      4.8199746167892933e+01 -3.8733914667988678e+01
      2.7708966963839558e+01 -4.3902133321230707e+01
      -6.3066495601329294e+01 -6.4012874656725689e+00
      -3.3466403789119845e+01 5.5321863539723005e+01
      2.5407749022654976e+01 -2.7953602764222421e+01
      -4.0820440768005675e+01 -7.7673040155664864e+01
      5.0518928264834351e+01 -3.0105058006159023e+01
      7.7710968261171971e+01 -3.0365424295414364e+01
      -7.7254021533937689e+01 1.4244342739074372e+02
      -2.2861844369502338e+00 -9.4494414730927829e+01
      -1.1774501707706642e+02 -8.1407623335053216e+00
      -2.7649287241597541e+01 7.4968458090691827e+00
      -2.9437141105452497e+01 -6.7998849459789767e+01
      5.7188825435577080e+01 9.6757644333983961e+01
      5.9746811203379416e+01 1.0141109516510207e+02
      -2.0138646104406330e+01 5.0264337446467891e+01
      -9.8240957878217813e+01 7.4606806156044755e+01
      1.1439123893951161e+01 7.0834320027887021e-01
      5.4184992687567629e+01 -2.2821754801543733e+01
      -2.8645788742295551e+01 -1.0305511740365786e+02
      4.5532925915306819e+01 6.1320071375902216e+01
      1.6523707135341013e+01 6.2983431293092593e+01
      1.9811031813490434e+00 -9.7852865628192035e+01
      -5.2092691507590514e+00 -1.1879551809748159e+01
      4.8487962711257829e+01 -3.8609861667654734e+01
      1.4514983410533997e+01 -6.3280256164781136e+01
      -9.2478148298921667e+01 -2.5997972762819231e+01
      -7.2945924234416481e+01 -6.1797799521100899e+01
      -2.0143935848369864e+02 4.7319925360217233e+01
      -2.5938126622016586e+01 -1.2050111533629156e+02
      -5.9132394332101725e+00 6.5633731419337252e+01
      4.3106152372526616e+01 -3.8116727462772930e+00
      1.2377207201947144e+02 -2.5064197101636736e+01
      6.8894479728983939e+01 -2.7587534362022556e+01
      -1.1066661227008902e+02 8.4718487490234907e+01
      -1.2635905219950738e+01 -9.5162479272634272e+01
      -6.8350817248538746e+01 -6.9337882365348094e+01
      -4.5754484425178283e+01 -6.4323509081148931e+00
      7.2951560757063049e+01 -3.3655665612549122e+01
      4.6610439746964779e+01 -7.9088609717346557e+01
      1.2352104788792702e+00 5.2780684870871617e+01
      -7.9767398488260213e+00 6.7463365188435098e+00
      -9.3389358137747564e+01 -2.7786067153739275e+01
      1.1906145333857454e+01 6.2827408843632966e+01
      2.5997737560514791e+00 1.0645188865477579e+02
      -3.8845567881494475e+01 -1.0522194477866215e+01
      8.0716698594409820e+01 -9.4011835518374127e+01
      -5.4127524147395988e+01 -1.5776114997726452e+01
      1.4345524817447321e+02 -4.5685404721374063e+01
      -3.8351871516341340e+01 -3.2300413863939241e+01
      -4.3618891951441803e+01 8.1791624467604422e+01
      -5.4330573624421547e+01 -3.4970618641974127e+01
      2.0071561235567632e+01 1.6096715986653678e+01
      1.6789006214532927e+02 1.3874485042472256e+02
      9.6669034162444561e+01 -3.3633623609746216e+01
      -2.3618606074503465e+00 -3.0167835865345499e+01
      1.0762965497882126e+02 -1.4329751290189512e+02
      -2.9561000428428272e+01 -1.8223948259028379e+02
      7.0468111183690523e+00 9.2509685748227241e+01
      2.5134732559771155e+01 -6.3577329830978421e+01
      1.9575928070079883e+01 7.8624020332439271e+00
      3.8156106443947841e+01 -1.5968053408021584e+01
      -2.5690390582386652e+01 7.2413871520252485e+01
      5.0550458927124904e+00 -1.4185203639407268e+02
      9.9341853489792229e+01 1.6649379758040741e+01
      -7.3588011481341455e+00 -3.8002243612387097e+01
      -9.8649682979927164e+01 -5.5294405370984407e+01
      4.2123690574640584e+01 1.1955692772360531e+00
      -1.4771435129500475e+01 2.5029426798643353e+01
      -8.8927731998898395e+01 -7.1272029405200229e+01
      2.5818949902229203e+01 8.8814421171419141e+01
      2.3473565642791861e+01 1.9802260812379785e+01
      -3.2542317768195829e+01 -6.3342314609484575e+01
      1.0546816488732503e+02 -5.7689503532424609e+01
      3.6693758220316390e+01 -5.8298264266838643e+01
      -3.3120385700622116e+01 -3.1163932760318691e+01
      -9.5756370405842787e+01 2.1030490923459642e+01
      7.3032576235418261e+01 -3.6663020360991915e+01
      3.9994859115282843e+01 3.7774873614390948e+01
      -9.1872634268179894e+01 4.2887088827288196e+01
      2.1431776169144399e+01 3.5063946725166986e+00
      -2.8643792935859825e+01 -2.2714434262208467e+01
      -6.8727937419958778e+01 1.1174043583055704e+01
      -1.0011064925210034e+02 1.1217552570270392e+02
      4.8968938099795345e+01 -5.4118545181170013e+01
      -5.9303657474155678e+01 -3.9691140545957865e+01
      -2.9773155640253705e+01 5.6961474687063269e+00
      -7.7105825658884626e+01 -7.7749162535317794e+01
      9.2920761369848222e+01 -4.2307845556456691e+01
      -3.2429967278094352e+01 -2.1860906453749351e+01
      1.3728318147710633e+02 -1.2604274540738795e+02
      3.5738112081207980e+01 -6.6592058644293715e+01
      -6.3866544624298328e+01 -8.1290281412114467e+01
      3.6385913116547670e+01 3.2201395932229396e+01
      1.8592939525637028e+01 6.0676141093901542e+01
      1.7195254622747452e+01 1.0633870673129280e+02
      5.0097810093263213e+00 -8.0921908085218234e+01
      5.6731342900018454e+01 -2.3932977557066195e+01
      -4.4134260019162092e+01 -8.6414883149981407e+01
      8.9696500712924845e+01 6.7672269856989004e+01
      3.6263187936144931e+01 -7.0786250240243277e+01
      7.8792570153188365e+01 -2.0403454776589513e+01
      -6.3279040038519362e+01 2.7097083506269726e+01
      -5.2114885335567678e+01 4.9218480286764926e-01
      -1.3861054630613231e+02 -9.8445360997403625e+01
      -2.5196300398343224e-01 -1.9714166281014421e+01
      4.5183268349417702e+01 1.0901160082846280e+02
      1.8383130830790958e+02 -2.7281607611148186e+01
      6.7110629549814476e+01 9.5842885284506742e+00
      -8.2926590551387449e+01 1.0866551148904861e+02
      6.0623072381549470e+00 4.0522821853822997e+01
      -8.4884561916688611e+01 -2.0797568300069514e+01
      4.1625331744730907e+01 1.1485772623723686e+02
      1.0501286614854641e+02 1.1431879775856170e+02
      -2.6469780778120253e+01 -2.3511874267456847e+01
      -9.9533286905334450e+01 -1.6774881985309978e+01
      5.8827222111385753e+00 -1.9429176062254637e+01
      -7.8856455014832516e+00 -3.2896919114288622e+01
      -2.7146142564353424e+00 1.3448298841439508e+01
      -1.3121126318842126e+01 4.8378217835463396e+01
      1.8083673807052577e+01 -3.7042641384180705e+01
      6.1477365658563734e+01 6.9102566602153871e+01
      5.0386844569191442e+00 -8.5548416865097927e+00
      -6.7034174367567502e+01 2.2407894126745170e+01
      8.4598092203264272e+01 -1.0522321164443613e+02
      4.3854852717538169e+00 -4.1280045756029494e+01
      2.3003465267784879e+01 2.7719313745366868e+01
      -1.7034115018418824e+01 -2.9666094596651622e+01
      -5.6798093571187934e+01 -6.1972181441146930e+01
      -6.3776359593529911e+01 -1.9659670842270120e+02
      9.6781918126931501e+00 8.9953163263344607e+00
      1.8480794492703701e+01 -4.1828907377253820e+01
      -1.6787711806757548e+02 6.6726666620046814e+01
      1.4674769999645861e+02 -1.0524113618920376e+02
      -1.0750291148419858e+02 -1.6007355558041443e+01
      2.7160298252397797e+02 3.9205414608502558e+01
      -8.7396929095611029e+01 -1.5983282713198812e+00
      1.4574547692396581e+02 1.5274287996869367e+02
      5.4072340372088810e+01 2.1947744897613407e+02
      2.1303829595209967e+02 1.3143964140700066e+02
      -1.5101312041439823e+02 -1.2924948104277979e+02
      -1.6701140976738714e+02 -1.2821330793297445e+01
      -1.7430867672949310e+02 1.6473418530912433e+01
      1.1297094399395095e+02 1.3662201150805066e+01
      -7.7790672790464811e+01 -6.7048507817649053e+01
      -2.4470091849228691e+01 8.3381690113894521e+01
      1.4325946959429888e+02 -5.9440079625796713e+01
      1.8402930714129781e+01 -4.3282354468254546e+01
      -1.9302227893481111e+02 2.1349728354704549e+01</_>
    <_>
      1.0392201406945710e-01 5.8676343069794926e-02
      4.0953450939939351e-02 8.8342102947168932e-02
      8.6438613852759819e-02 1.0941106576308367e-01
      -1.0540817937512692e-01 -4.8133251203017112e-02
      6.5935726660549004e-02 7.6482596473091496e-02
      2.6399158437112377e-02 9.1528044049439691e-02
      1.0259593572198764e-01 -7.6092835899233879e-02
      -1.5455160115184827e-01 1.0606370873289379e-01
      -4.8630927170244642e-02 3.9260606500158099e-02
      -1.1062442105978618e-01 -5.5953608616170533e-02
      -1.7234674087744248e-01 -1.6835021981753184e-01
      -6.0521631474432812e-02 -5.8217863925310073e-02
      -6.5789620253055250e-02 1.0316112681088523e-01
      3.7178288434128702e-02 -1.3270734001931458e-01
      1.5982593782533347e-01 7.2323817482072159e-02
      -1.9275310068807148e-02 -1.1473377688713378e-01
      7.3045322476428975e-02 5.8469533431289175e-02
      4.0318536348441750e-02 -1.5247418283014701e-02
      -1.3225073973347590e-01 4.6080490911632688e-02
      4.4603457080776364e-02 -4.3116512545274335e-02
      -8.0041126396560719e-02 -7.5876928435213806e-02
      3.0526140915336680e-01</_></weights></opencv_ml_ann_mlp>
</opencv_storage>
